digraph Tree {
node [shape=box] ;
0 [label="X[1] <= 48.5\ngini = 0.499\nsamples = 59\nvalue = [28, 31]"] ;
1 [label="X[1] <= 18.5\ngini = 0.495\nsamples = 51\nvalue = [28, 23]"] ;
0 -> 1 [labeldistance=2.5, labelangle=45, headlabel="True"] ;
2 [label="X[0] <= 42.0\ngini = 0.375\nsamples = 12\nvalue = [3, 9]"] ;
1 -> 2 ;
3 [label="X[1] <= 5.5\ngini = 0.49\nsamples = 7\nvalue = [3, 4]"] ;
2 -> 3 ;
4 [label="gini = 0.0\nsamples = 3\nvalue = [0, 3]"] ;
3 -> 4 ;
5 [label="X[0] <= 26.5\ngini = 0.375\nsamples = 4\nvalue = [3, 1]"] ;
3 -> 5 ;
6 [label="X[1] <= 7.5\ngini = 0.5\nsamples = 2\nvalue = [1, 1]"] ;
5 -> 6 ;
7 [label="gini = 0.0\nsamples = 1\nvalue = [1, 0]"] ;
6 -> 7 ;
8 [label="gini = 0.0\nsamples = 1\nvalue = [0, 1]"] ;
6 -> 8 ;
9 [label="gini = 0.0\nsamples = 2\nvalue = [2, 0]"] ;
5 -> 9 ;
10 [label="gini = 0.0\nsamples = 5\nvalue = [0, 5]"] ;
2 -> 10 ;
11 [label="X[0] <= 16.5\ngini = 0.46\nsamples = 39\nvalue = [25, 14]"] ;
1 -> 11 ;
12 [label="X[1] <= 36.0\ngini = 0.278\nsamples = 6\nvalue = [1, 5]"] ;
11 -> 12 ;
13 [label="gini = 0.0\nsamples = 3\nvalue = [0, 3]"] ;
12 -> 13 ;
14 [label="X[0] <= 14.5\ngini = 0.444\nsamples = 3\nvalue = [1, 2]"] ;
12 -> 14 ;
15 [label="gini = 0.0\nsamples = 1\nvalue = [1, 0]"] ;
14 -> 15 ;
16 [label="gini = 0.0\nsamples = 2\nvalue = [0, 2]"] ;
14 -> 16 ;
17 [label="X[1] <= 39.0\ngini = 0.397\nsamples = 33\nvalue = [24, 9]"] ;
11 -> 17 ;
18 [label="X[0] <= 21.0\ngini = 0.208\nsamples = 17\nvalue = [15, 2]"] ;
17 -> 18 ;
19 [label="X[1] <= 26.5\ngini = 0.5\nsamples = 4\nvalue = [2, 2]"] ;
18 -> 19 ;
20 [label="gini = 0.0\nsamples = 2\nvalue = [2, 0]"] ;
19 -> 20 ;
21 [label="gini = 0.0\nsamples = 2\nvalue = [0, 2]"] ;
19 -> 21 ;
22 [label="gini = 0.0\nsamples = 13\nvalue = [13, 0]"] ;
18 -> 22 ;
23 [label="X[0] <= 23.5\ngini = 0.492\nsamples = 16\nvalue = [9, 7]"] ;
17 -> 23 ;
24 [label="gini = 0.0\nsamples = 4\nvalue = [4, 0]"] ;
23 -> 24 ;
25 [label="X[0] <= 42.5\ngini = 0.486\nsamples = 12\nvalue = [5, 7]"] ;
23 -> 25 ;
26 [label="X[1] <= 43.5\ngini = 0.346\nsamples = 9\nvalue = [2, 7]"] ;
25 -> 26 ;
27 [label="gini = 0.0\nsamples = 4\nvalue = [0, 4]"] ;
26 -> 27 ;
28 [label="X[1] <= 45.5\ngini = 0.48\nsamples = 5\nvalue = [2, 3]"] ;
26 -> 28 ;
29 [label="X[0] <= 28.5\ngini = 0.444\nsamples = 3\nvalue = [2, 1]"] ;
28 -> 29 ;
30 [label="gini = 0.0\nsamples = 1\nvalue = [1, 0]"] ;
29 -> 30 ;
31 [label="X[0] <= 33.5\ngini = 0.5\nsamples = 2\nvalue = [1, 1]"] ;
29 -> 31 ;
32 [label="gini = 0.0\nsamples = 1\nvalue = [0, 1]"] ;
31 -> 32 ;
33 [label="gini = 0.0\nsamples = 1\nvalue = [1, 0]"] ;
31 -> 33 ;
34 [label="gini = 0.0\nsamples = 2\nvalue = [0, 2]"] ;
28 -> 34 ;
35 [label="gini = 0.0\nsamples = 3\nvalue = [3, 0]"] ;
25 -> 35 ;
36 [label="gini = 0.0\nsamples = 8\nvalue = [0, 8]"] ;
0 -> 36 [labeldistance=2.5, labelangle=-45, headlabel="False"] ;
}
