digraph Tree {
node [shape=box] ;
0 [label="X[1] <= 51.0\ngini = 0.5\nsamples = 85\nvalue = [42, 43]"] ;
1 [label="X[1] <= 5.5\ngini = 0.493\nsamples = 75\nvalue = [42, 33]"] ;
0 -> 1 [labeldistance=2.5, labelangle=45, headlabel="True"] ;
2 [label="gini = 0.0\nsamples = 6\nvalue = [0, 6]"] ;
1 -> 2 ;
3 [label="X[0] <= 16.5\ngini = 0.476\nsamples = 69\nvalue = [42, 27]"] ;
1 -> 3 ;
4 [label="X[1] <= 34.5\ngini = 0.375\nsamples = 8\nvalue = [2, 6]"] ;
3 -> 4 ;
5 [label="gini = 0.0\nsamples = 4\nvalue = [0, 4]"] ;
4 -> 5 ;
6 [label="X[1] <= 42.5\ngini = 0.5\nsamples = 4\nvalue = [2, 2]"] ;
4 -> 6 ;
7 [label="gini = 0.0\nsamples = 1\nvalue = [1, 0]"] ;
6 -> 7 ;
8 [label="X[0] <= 14.5\ngini = 0.444\nsamples = 3\nvalue = [1, 2]"] ;
6 -> 8 ;
9 [label="gini = 0.0\nsamples = 1\nvalue = [1, 0]"] ;
8 -> 9 ;
10 [label="gini = 0.0\nsamples = 2\nvalue = [0, 2]"] ;
8 -> 10 ;
11 [label="X[1] <= 39.0\ngini = 0.451\nsamples = 61\nvalue = [40, 21]"] ;
3 -> 11 ;
12 [label="X[1] <= 18.5\ngini = 0.353\nsamples = 35\nvalue = [27, 8]"] ;
11 -> 12 ;
13 [label="X[1] <= 7.5\ngini = 0.48\nsamples = 10\nvalue = [4, 6]"] ;
12 -> 13 ;
14 [label="gini = 0.0\nsamples = 3\nvalue = [3, 0]"] ;
13 -> 14 ;
15 [label="X[0] <= 40.5\ngini = 0.245\nsamples = 7\nvalue = [1, 6]"] ;
13 -> 15 ;
16 [label="X[0] <= 27.5\ngini = 0.5\nsamples = 2\nvalue = [1, 1]"] ;
15 -> 16 ;
17 [label="gini = 0.0\nsamples = 1\nvalue = [0, 1]"] ;
16 -> 17 ;
18 [label="gini = 0.0\nsamples = 1\nvalue = [1, 0]"] ;
16 -> 18 ;
19 [label="gini = 0.0\nsamples = 5\nvalue = [0, 5]"] ;
15 -> 19 ;
20 [label="X[0] <= 21.0\ngini = 0.147\nsamples = 25\nvalue = [23, 2]"] ;
12 -> 20 ;
21 [label="X[1] <= 26.5\ngini = 0.5\nsamples = 4\nvalue = [2, 2]"] ;
20 -> 21 ;
22 [label="gini = 0.0\nsamples = 2\nvalue = [2, 0]"] ;
21 -> 22 ;
23 [label="gini = 0.0\nsamples = 2\nvalue = [0, 2]"] ;
21 -> 23 ;
24 [label="gini = 0.0\nsamples = 21\nvalue = [21, 0]"] ;
20 -> 24 ;
25 [label="X[0] <= 43.5\ngini = 0.5\nsamples = 26\nvalue = [13, 13]"] ;
11 -> 25 ;
26 [label="X[0] <= 23.5\ngini = 0.465\nsamples = 19\nvalue = [7, 12]"] ;
25 -> 26 ;
27 [label="gini = 0.0\nsamples = 4\nvalue = [4, 0]"] ;
26 -> 27 ;
28 [label="X[1] <= 42.5\ngini = 0.32\nsamples = 15\nvalue = [3, 12]"] ;
26 -> 28 ;
29 [label="gini = 0.0\nsamples = 6\nvalue = [0, 6]"] ;
28 -> 29 ;
30 [label="X[0] <= 36.0\ngini = 0.444\nsamples = 9\nvalue = [3, 6]"] ;
28 -> 30 ;
31 [label="X[1] <= 44.5\ngini = 0.375\nsamples = 8\nvalue = [2, 6]"] ;
30 -> 31 ;
32 [label="X[0] <= 27.5\ngini = 0.5\nsamples = 4\nvalue = [2, 2]"] ;
31 -> 32 ;
33 [label="gini = 0.0\nsamples = 1\nvalue = [1, 0]"] ;
32 -> 33 ;
34 [label="X[1] <= 43.5\ngini = 0.444\nsamples = 3\nvalue = [1, 2]"] ;
32 -> 34 ;
35 [label="gini = 0.0\nsamples = 1\nvalue = [0, 1]"] ;
34 -> 35 ;
36 [label="X[0] <= 31.0\ngini = 0.5\nsamples = 2\nvalue = [1, 1]"] ;
34 -> 36 ;
37 [label="gini = 0.0\nsamples = 1\nvalue = [1, 0]"] ;
36 -> 37 ;
38 [label="gini = 0.0\nsamples = 1\nvalue = [0, 1]"] ;
36 -> 38 ;
39 [label="gini = 0.0\nsamples = 4\nvalue = [0, 4]"] ;
31 -> 39 ;
40 [label="gini = 0.0\nsamples = 1\nvalue = [1, 0]"] ;
30 -> 40 ;
41 [label="X[1] <= 48.5\ngini = 0.245\nsamples = 7\nvalue = [6, 1]"] ;
25 -> 41 ;
42 [label="gini = 0.0\nsamples = 5\nvalue = [5, 0]"] ;
41 -> 42 ;
43 [label="X[0] <= 48.0\ngini = 0.5\nsamples = 2\nvalue = [1, 1]"] ;
41 -> 43 ;
44 [label="gini = 0.0\nsamples = 1\nvalue = [0, 1]"] ;
43 -> 44 ;
45 [label="gini = 0.0\nsamples = 1\nvalue = [1, 0]"] ;
43 -> 45 ;
46 [label="gini = 0.0\nsamples = 10\nvalue = [0, 10]"] ;
0 -> 46 [labeldistance=2.5, labelangle=-45, headlabel="False"] ;
}
